{
	"0": {
		"q_network/dense/kernel:0": [
			[0.030058443546295166, 0.462239146232605, -0.23869872093200684, 0.32330137491226196, 0.05567586421966553, 0.1925278902053833, -0.03515589237213135, 0.1464442014694214, 0.1880149245262146, 0.22052603960037231, -0.1673971712589264, -0.393826961517334],
			[0.04861032962799072, 0.37706923484802246, -0.5459186434745789, 0.20025867223739624, 0.327884316444397, 0.5071873664855957, -0.25147053599357605, -0.2940859794616699, 0.24269062280654907, -0.01776641607284546, 0.0989983081817627, -0.10395422577857971],
			[-0.4666787087917328, -0.4585655927658081, -0.3806400001049042, 0.15296638011932373, -0.12710487842559814, -0.3836078643798828, -0.25255662202835083, -0.43424108624458313, -0.11175617575645447, 0.27758991718292236, -0.052354246377944946, 0.5048007965087891],
			[0.04578191041946411, -0.19277536869049072, -0.03738582134246826, -0.0675453245639801, 0.03459036350250244, -0.1508987843990326, -0.2867250442504883, -0.20286545157432556, -0.36875540018081665, -0.45061033964157104, 0.11340481042861938, -0.23335927724838257],
			[0.20956206321716309, -0.26220521330833435, -0.031967222690582275, 0.23864102363586426, -0.08019101619720459, 0.2664172649383545, -0.19051948189735413, -0.27434849739074707, -0.08032798767089844, -0.33402568101882935, 0.055649757385253906, 0.5266577005386353],
			[0.28039872646331787, -0.5043289661407471, 0.39943361282348633, -0.4970557689666748, -0.49251577258110046, 0.4830472469329834, -0.22192099690437317, -0.17660096287727356, -0.13695859909057617, -0.01199483871459961, -0.3181658983230591, -0.22027990221977234],
			[0.02037292718887329, -0.015818417072296143, -0.2658953368663788, -0.19204095005989075, 0.2672657370567322, -0.44009703397750854, 0.3957366347312927, -0.36563172936439514, -0.2054283618927002, 0.3616389036178589, 0.536726713180542, 0.19906002283096313],
			[0.3195965886116028, 0.23862600326538086, -0.510985791683197, 0.2777906656265259, 0.4195082187652588, 0.43661409616470337, -0.09833258390426636, -0.3592470586299896, 0.2210012674331665, 0.46326518058776855, -0.2953517735004425, 0.31853413581848145]
		],
		"q_network/dense/bias:0": [0.0, 0.0, 0.0, 0.0, 0.0, 0.0, 0.0, 0.0, 0.0, 0.0, 0.0, 0.0],
		"q_network/dense_1/kernel:0": [
			[0.3413153886795044, 0.3886454105377197, -0.2340259552001953, 0.008053779602050781, 0.366939902305603, -0.20444905757904053, 0.38676416873931885, -0.12113583087921143, -0.4122828245162964, 0.35036730766296387, 0.23312604427337646, 0.20208048820495605],
			[-0.20289480686187744, -0.1349935531616211, 0.2856028079986572, -0.17503786087036133, -0.47378695011138916, -0.4017530679702759, 0.1731739044189453, 0.48189473152160645, 0.12027132511138916, 0.36478590965270996, 0.027251839637756348, 0.21949732303619385],
			[0.12712359428405762, 0.007942914962768555, 0.012755393981933594, 0.34446263313293457, -0.42456161975860596, 0.12475669384002686, -0.16994059085845947, -0.42816901206970215, 0.3910101652145386, 0.3899683952331543, -0.35622715950012207, 0.33487868309020996],
			[-0.015091657638549805, -0.35075104236602783, 0.005277752876281738, 0.07940781116485596, 0.4607856273651123, -0.27833783626556396, -0.014467954635620117, -0.15323102474212646, -0.36095941066741943, 0.09351623058319092, -0.4033687114715576, -0.3318519592285156],
			[-0.44918525218963623, 0.14771389961242676, -0.4990745782852173, 0.24957072734832764, 0.24582374095916748, -0.1428079605102539, -0.2568933963775635, -0.24196863174438477, -0.33091771602630615, 0.21233606338500977, 0.1631988286972046, -0.32383501529693604],
			[0.06799519062042236, -0.12281310558319092, 0.06136655807495117, 0.07168698310852051, -0.4060405492782593, 0.45357024669647217, 0.04518997669219971, 0.26389002799987793, 0.4870368242263794, -0.46188080310821533, 0.3360326290130615, -0.37585771083831787],
			[-0.34897661209106445, 0.4157758951187134, 0.3821697235107422, 0.01175379753112793, 0.17811477184295654, 0.4359930753707886, 0.015642762184143066, 0.005474090576171875, -0.1687558889389038, -0.15053832530975342, -0.045024871826171875, 0.1988675594329834],
			[-0.4719127416610718, 0.3600198030471802, 0.42441487312316895, 0.2518298625946045, 0.3178168535232544, 0.12603092193603516, -0.003140091896057129, -0.204179048538208, 0.23256158828735352, 0.20400965213775635, -0.3018379211425781, -0.09062695503234863],
			[-0.4230135679244995, -0.04166984558105469, -0.3925832509994507, -0.1715184450149536, 0.48608219623565674, -0.46559572219848633, 0.053064584732055664, -0.2180771827697754, -0.11490583419799805, 0.28601062297821045, 0.15568077564239502, -0.2656869888305664],
			[-0.385692834854126, 0.019398808479309082, 0.49535369873046875, 0.33033108711242676, 0.3993571996688843, 0.3902183771133423, 0.461398720741272, -0.013208389282226562, 0.14344704151153564, 0.19557344913482666, -0.4803816080093384, 0.34080398082733154],
			[-0.22980225086212158, 0.3505406379699707, 0.42150211334228516, 0.13057005405426025, -0.23714637756347656, -0.14661622047424316, -0.4622234106063843, 0.03580045700073242, -0.1916278600692749, 0.17839443683624268, 0.14084959030151367, 0.09577000141143799],
			[-0.39001762866973877, -0.27215147018432617, 0.43936586380004883, 0.08294534683227539, 0.3346647024154663, -0.39499402046203613, -0.2022188901901245, 0.20325446128845215, 0.02613043785095215, 0.1452873945236206, -0.36656856536865234, -0.2995809316635132]
		],
		"q_network/dense_1/bias:0": [0.0, 0.0, 0.0, 0.0, 0.0, 0.0, 0.0, 0.0, 0.0, 0.0, 0.0, 0.0],
		"q_network/dense_2/kernel:0": [
			[0.01979529857635498, 0.03108668327331543, 0.4977318048477173, -0.2404499053955078, 0.06536662578582764, -0.1561201810836792, 0.16606247425079346, -0.22535037994384766, 0.18592679500579834, 0.4202767610549927, 0.03215658664703369, 0.3989250659942627],
			[-0.4799576997756958, 0.40531134605407715, -0.06928157806396484, -0.21063387393951416, -0.2563314437866211, -0.38858020305633545, -0.15240716934204102, 0.2540353536605835, 0.010723114013671875, 0.12837648391723633, -0.056853532791137695, -0.1089320182800293],
			[-0.293872594833374, 0.04937291145324707, 0.3792459964752197, -0.210290789604187, 0.3770592212677002, 0.14138615131378174, 0.2207406759262085, 0.4966888427734375, -0.44873225688934326, 0.2998870611190796, -0.4931001663208008, 0.3157557249069214],
			[-0.01004648208618164, -0.033810973167419434, -0.42948484420776367, 0.13481318950653076, 0.10587894916534424, 0.12178313732147217, -0.4342077970504761, 0.42433738708496094, -0.45213770866394043, -0.1654345989227295, 0.009761452674865723, -0.16229724884033203],
			[-0.06320846080780029, 0.32096588611602783, -0.27698493003845215, -0.30743467807769775, -0.11423861980438232, 0.02682018280029297, -0.2966653108596802, -0.21386051177978516, -0.020296335220336914, 0.30234575271606445, 0.01918208599090576, 0.18435919284820557],
			[0.31511831283569336, 0.2812962532043457, -0.18920695781707764, 0.42071616649627686, 0.37049317359924316, 0.3840456008911133, -0.3736473321914673, 0.12135863304138184, 0.4288334846496582, 0.4451718330383301, -0.22000467777252197, 0.16366147994995117],
			[0.03247714042663574, -0.4732004404067993, -0.033873796463012695, 0.03831124305725098, -0.46647655963897705, -0.42895233631134033, 0.46502840518951416, 0.04119527339935303, -0.0055162906646728516, -0.24922657012939453, -0.237662672996521, -0.1762486696243286],
			[-0.14259982109069824, -0.2948603630065918, 0.05857646465301514, 0.21380746364593506, 0.13665449619293213, -0.4043388366699219, -0.24028754234313965, 0.20616579055786133, -0.2677267789840698, 0.04263186454772949, 0.2714632749557495, 0.46361541748046875],
			[0.4964907169342041, -0.14203262329101562, 0.4115869998931885, 0.011836886405944824, 0.036385416984558105, -0.04087340831756592, 0.34450244903564453, -0.40338873863220215, 0.35003960132598877, 0.12079477310180664, -0.26699793338775635, 0.18246960639953613],
			[-0.38611793518066406, -0.17139649391174316, -0.3195728063583374, 0.2827188968658447, 0.21545934677124023, -0.18806421756744385, -0.07210409641265869, 0.42102205753326416, 0.17891860008239746, -0.20631694793701172, 0.31654632091522217, -0.29211533069610596],
			[-0.11643636226654053, 0.45390117168426514, -0.12077760696411133, 0.29851436614990234, -0.49932634830474854, 0.34753966331481934, 0.19777095317840576, 0.029745101928710938, 0.2166452407836914, -0.1382453441619873, 0.3766288757324219, 0.2610360383987427],
			[-0.46873486042022705, -0.08866703510284424, -0.4946945905685425, 0.27511703968048096, 0.461651086807251, -0.016902804374694824, 0.49899590015411377, -0.3860896825790405, -0.1413559913635254, -0.4269806146621704, -0.2809107303619385, -0.4107398986816406]
		],
		"q_network/dense_2/bias:0": [0.0, 0.0, 0.0, 0.0, 0.0, 0.0, 0.0, 0.0, 0.0, 0.0, 0.0, 0.0],
		"q_network/dense_3/kernel:0": [
			[0.058580100536346436, -0.19278129935264587, 0.08437222242355347, -0.03291696310043335],
			[-0.5941113829612732, -0.43111035227775574, -0.3883419930934906, -0.216871440410614],
			[-0.04744464159011841, 0.5908191800117493, -0.5353303551673889, -0.17583218216896057],
			[-0.18893283605575562, 0.012880504131317139, -0.2871749997138977, 0.34824079275131226],
			[0.5791712403297424, -0.2772587537765503, 0.1690746545791626, 0.3553113341331482],
			[0.11353111267089844, 0.455882728099823, 0.1266748309135437, -0.032765984535217285],
			[0.22141236066818237, -0.36097660660743713, -0.5148444175720215, -0.2585677206516266],
			[0.6062312722206116, 0.14007490873336792, 0.020700037479400635, 0.4520631432533264],
			[0.6005974411964417, 0.5195391774177551, 0.3043830990791321, 0.19795191287994385],
			[0.09169501066207886, 0.0807347297668457, 0.2943670153617859, -0.20613235235214233],
			[-0.4226323664188385, -0.22444772720336914, 0.14628726243972778, -0.006599068641662598],
			[-0.48190540075302124, -0.40281376242637634, 0.08381664752960205, -0.08642512559890747]
		],
		"q_network/dense_3/bias:0": [0.0, 0.0, 0.0, 0.0]
	},
	"1": {
		"q_network/dense/kernel:0": [
			[0.030058443546295166, 0.462239146232605, -0.23869872093200684, 0.32330137491226196, 0.05567586421966553, 0.1925278902053833, -0.03515589237213135, 0.1464442014694214, 0.1880149245262146, 0.22052603960037231, -0.1673971712589264, -0.393826961517334],
			[0.04861032962799072, 0.37706923484802246, -0.5459186434745789, 0.20025867223739624, 0.327884316444397, 0.5071873664855957, -0.25147053599357605, -0.2940859794616699, 0.24269062280654907, -0.01776641607284546, 0.0989983081817627, -0.10395422577857971],
			[-0.4666787087917328, -0.4585655927658081, -0.3806400001049042, 0.15296638011932373, -0.12710487842559814, -0.3836078643798828, -0.25255662202835083, -0.43424108624458313, -0.11175617575645447, 0.27758991718292236, -0.052354246377944946, 0.5048007965087891],
			[0.04578191041946411, -0.19277536869049072, -0.03738582134246826, -0.0675453245639801, 0.03459036350250244, -0.1508987843990326, -0.2867250442504883, -0.20286545157432556, -0.36875540018081665, -0.45061033964157104, 0.11340481042861938, -0.23335927724838257],
			[0.20956206321716309, -0.26220521330833435, -0.031967222690582275, 0.23864102363586426, -0.08019101619720459, 0.2664172649383545, -0.19051948189735413, -0.27434849739074707, -0.08032798767089844, -0.33402568101882935, 0.055649757385253906, 0.5266577005386353],
			[0.28039872646331787, -0.5043289661407471, 0.39943361282348633, -0.4970557689666748, -0.49251577258110046, 0.4830472469329834, -0.22192099690437317, -0.17660096287727356, -0.13695859909057617, -0.01199483871459961, -0.3181658983230591, -0.22027990221977234],
			[0.02037292718887329, -0.015818417072296143, -0.2658953368663788, -0.19204095005989075, 0.2672657370567322, -0.44009703397750854, 0.3957366347312927, -0.36563172936439514, -0.2054283618927002, 0.3616389036178589, 0.536726713180542, 0.19906002283096313],
			[0.3195965886116028, 0.23862600326538086, -0.510985791683197, 0.2777906656265259, 0.4195082187652588, 0.43661409616470337, -0.09833258390426636, -0.3592470586299896, 0.2210012674331665, 0.46326518058776855, -0.2953517735004425, 0.31853413581848145]
		],
		"q_network/dense/bias:0": [0.0, 0.0, 0.0, 0.0, 0.0, 0.0, 0.0, 0.0, 0.0, 0.0, 0.0, 0.0],
		"q_network/dense_1/kernel:0": [
			[0.3413153886795044, 0.3886454105377197, -0.2340259552001953, 0.008053779602050781, 0.366939902305603, -0.20444905757904053, 0.38676416873931885, -0.12113583087921143, -0.4122828245162964, 0.35036730766296387, 0.23312604427337646, 0.20208048820495605],
			[-0.20289480686187744, -0.1349935531616211, 0.2856028079986572, -0.17503786087036133, -0.47378695011138916, -0.4017530679702759, 0.1731739044189453, 0.48189473152160645, 0.12027132511138916, 0.36478590965270996, 0.027251839637756348, 0.21949732303619385],
			[0.12712359428405762, 0.007942914962768555, 0.012755393981933594, 0.34446263313293457, -0.42456161975860596, 0.12475669384002686, -0.16994059085845947, -0.42816901206970215, 0.3910101652145386, 0.3899683952331543, -0.35622715950012207, 0.33487868309020996],
			[-0.015091657638549805, -0.35075104236602783, 0.005277752876281738, 0.07940781116485596, 0.4607856273651123, -0.27833783626556396, -0.014467954635620117, -0.15323102474212646, -0.36095941066741943, 0.09351623058319092, -0.4033687114715576, -0.3318519592285156],
			[-0.44918525218963623, 0.14771389961242676, -0.4990745782852173, 0.24957072734832764, 0.24582374095916748, -0.1428079605102539, -0.2568933963775635, -0.24196863174438477, -0.33091771602630615, 0.21233606338500977, 0.1631988286972046, -0.32383501529693604],
			[0.06799519062042236, -0.12281310558319092, 0.06136655807495117, 0.07168698310852051, -0.4060405492782593, 0.45357024669647217, 0.04518997669219971, 0.26389002799987793, 0.4870368242263794, -0.46188080310821533, 0.3360326290130615, -0.37585771083831787],
			[-0.34897661209106445, 0.4157758951187134, 0.3821697235107422, 0.01175379753112793, 0.17811477184295654, 0.4359930753707886, 0.015642762184143066, 0.005474090576171875, -0.1687558889389038, -0.15053832530975342, -0.045024871826171875, 0.1988675594329834],
			[-0.4719127416610718, 0.3600198030471802, 0.42441487312316895, 0.2518298625946045, 0.3178168535232544, 0.12603092193603516, -0.003140091896057129, -0.204179048538208, 0.23256158828735352, 0.20400965213775635, -0.3018379211425781, -0.09062695503234863],
			[-0.4230135679244995, -0.04166984558105469, -0.3925832509994507, -0.1715184450149536, 0.48608219623565674, -0.46559572219848633, 0.053064584732055664, -0.2180771827697754, -0.11490583419799805, 0.28601062297821045, 0.15568077564239502, -0.2656869888305664],
			[-0.385692834854126, 0.019398808479309082, 0.49535369873046875, 0.33033108711242676, 0.3993571996688843, 0.3902183771133423, 0.461398720741272, -0.013208389282226562, 0.14344704151153564, 0.19557344913482666, -0.4803816080093384, 0.34080398082733154],
			[-0.22980225086212158, 0.3505406379699707, 0.42150211334228516, 0.13057005405426025, -0.23714637756347656, -0.14661622047424316, -0.4622234106063843, 0.03580045700073242, -0.1916278600692749, 0.17839443683624268, 0.14084959030151367, 0.09577000141143799],
			[-0.39001762866973877, -0.27215147018432617, 0.43936586380004883, 0.08294534683227539, 0.3346647024154663, -0.39499402046203613, -0.2022188901901245, 0.20325446128845215, 0.02613043785095215, 0.1452873945236206, -0.36656856536865234, -0.2995809316635132]
		],
		"q_network/dense_1/bias:0": [0.0, 0.0, 0.0, 0.0, 0.0, 0.0, 0.0, 0.0, 0.0, 0.0, 0.0, 0.0],
		"q_network/dense_2/kernel:0": [
			[0.01979529857635498, 0.03108668327331543, 0.4977318048477173, -0.2404499053955078, 0.06536662578582764, -0.1561201810836792, 0.16606247425079346, -0.22535037994384766, 0.18592679500579834, 0.4202767610549927, 0.03215658664703369, 0.3989250659942627],
			[-0.4799576997756958, 0.40531134605407715, -0.06928157806396484, -0.21063387393951416, -0.2563314437866211, -0.38858020305633545, -0.15240716934204102, 0.2540353536605835, 0.010723114013671875, 0.12837648391723633, -0.056853532791137695, -0.1089320182800293],
			[-0.293872594833374, 0.04937291145324707, 0.3792459964752197, -0.210290789604187, 0.3770592212677002, 0.14138615131378174, 0.2207406759262085, 0.4966888427734375, -0.44873225688934326, 0.2998870611190796, -0.4931001663208008, 0.3157557249069214],
			[-0.01004648208618164, -0.033810973167419434, -0.42948484420776367, 0.13481318950653076, 0.10587894916534424, 0.12178313732147217, -0.4342077970504761, 0.42433738708496094, -0.45213770866394043, -0.1654345989227295, 0.009761452674865723, -0.16229724884033203],
			[-0.06320846080780029, 0.32096588611602783, -0.27698493003845215, -0.30743467807769775, -0.11423861980438232, 0.02682018280029297, -0.2966653108596802, -0.21386051177978516, -0.020296335220336914, 0.30234575271606445, 0.01918208599090576, 0.18435919284820557],
			[0.31511831283569336, 0.2812962532043457, -0.18920695781707764, 0.42071616649627686, 0.37049317359924316, 0.3840456008911133, -0.3736473321914673, 0.12135863304138184, 0.4288334846496582, 0.4451718330383301, -0.22000467777252197, 0.16366147994995117],
			[0.03247714042663574, -0.4732004404067993, -0.033873796463012695, 0.03831124305725098, -0.46647655963897705, -0.42895233631134033, 0.46502840518951416, 0.04119527339935303, -0.0055162906646728516, -0.24922657012939453, -0.237662672996521, -0.1762486696243286],
			[-0.14259982109069824, -0.2948603630065918, 0.05857646465301514, 0.21380746364593506, 0.13665449619293213, -0.4043388366699219, -0.24028754234313965, 0.20616579055786133, -0.2677267789840698, 0.04263186454772949, 0.2714632749557495, 0.46361541748046875],
			[0.4964907169342041, -0.14203262329101562, 0.4115869998931885, 0.011836886405944824, 0.036385416984558105, -0.04087340831756592, 0.34450244903564453, -0.40338873863220215, 0.35003960132598877, 0.12079477310180664, -0.26699793338775635, 0.18246960639953613],
			[-0.38611793518066406, -0.17139649391174316, -0.3195728063583374, 0.2827188968658447, 0.21545934677124023, -0.18806421756744385, -0.07210409641265869, 0.42102205753326416, 0.17891860008239746, -0.20631694793701172, 0.31654632091522217, -0.29211533069610596],
			[-0.11643636226654053, 0.45390117168426514, -0.12077760696411133, 0.29851436614990234, -0.49932634830474854, 0.34753966331481934, 0.19777095317840576, 0.029745101928710938, 0.2166452407836914, -0.1382453441619873, 0.3766288757324219, 0.2610360383987427],
			[-0.46873486042022705, -0.08866703510284424, -0.4946945905685425, 0.27511703968048096, 0.461651086807251, -0.016902804374694824, 0.49899590015411377, -0.3860896825790405, -0.1413559913635254, -0.4269806146621704, -0.2809107303619385, -0.4107398986816406]
		],
		"q_network/dense_2/bias:0": [0.0, 0.0, 0.0, 0.0, 0.0, 0.0, 0.0, 0.0, 0.0, 0.0, 0.0, 0.0],
		"q_network/dense_3/kernel:0": [
			[0.058580100536346436, -0.19278129935264587, 0.08437222242355347, -0.03291696310043335],
			[-0.5941113829612732, -0.43111035227775574, -0.3883419930934906, -0.216871440410614],
			[-0.04744464159011841, 0.5908191800117493, -0.5353303551673889, -0.17583218216896057],
			[-0.18893283605575562, 0.012880504131317139, -0.2871749997138977, 0.34824079275131226],
			[0.5791712403297424, -0.2772587537765503, 0.1690746545791626, 0.3553113341331482],
			[0.11353111267089844, 0.455882728099823, 0.1266748309135437, -0.032765984535217285],
			[0.22141236066818237, -0.36097660660743713, -0.5148444175720215, -0.2585677206516266],
			[0.6062312722206116, 0.14007490873336792, 0.020700037479400635, 0.4520631432533264],
			[0.6005974411964417, 0.5195391774177551, 0.3043830990791321, 0.19795191287994385],
			[0.09169501066207886, 0.0807347297668457, 0.2943670153617859, -0.20613235235214233],
			[-0.4226323664188385, -0.22444772720336914, 0.14628726243972778, -0.006599068641662598],
			[-0.48190540075302124, -0.40281376242637634, 0.08381664752960205, -0.08642512559890747]
		],
		"q_network/dense_3/bias:0": [0.0, 0.0, 0.0, 0.0]
	},
	"2": {
		"q_network/dense/kernel:0": [
			[0.030058443546295166, 0.462239146232605, -0.23869872093200684, 0.32330137491226196, 0.05567586421966553, 0.1925278902053833, -0.03515589237213135, 0.1464442014694214, 0.1880149245262146, 0.22052603960037231, -0.1673971712589264, -0.393826961517334],
			[0.04861032962799072, 0.37706923484802246, -0.5459186434745789, 0.20025867223739624, 0.327884316444397, 0.5071873664855957, -0.25147053599357605, -0.2940859794616699, 0.24269062280654907, -0.01776641607284546, 0.0989983081817627, -0.10395422577857971],
			[-0.4666787087917328, -0.4585655927658081, -0.3806400001049042, 0.15296638011932373, -0.12710487842559814, -0.3836078643798828, -0.25255662202835083, -0.43424108624458313, -0.11175617575645447, 0.27758991718292236, -0.052354246377944946, 0.5048007965087891],
			[0.04578191041946411, -0.19277536869049072, -0.03738582134246826, -0.0675453245639801, 0.03459036350250244, -0.1508987843990326, -0.2867250442504883, -0.20286545157432556, -0.36875540018081665, -0.45061033964157104, 0.11340481042861938, -0.23335927724838257],
			[0.20956206321716309, -0.26220521330833435, -0.031967222690582275, 0.23864102363586426, -0.08019101619720459, 0.2664172649383545, -0.19051948189735413, -0.27434849739074707, -0.08032798767089844, -0.33402568101882935, 0.055649757385253906, 0.5266577005386353],
			[0.28039872646331787, -0.5043289661407471, 0.39943361282348633, -0.4970557689666748, -0.49251577258110046, 0.4830472469329834, -0.22192099690437317, -0.17660096287727356, -0.13695859909057617, -0.01199483871459961, -0.3181658983230591, -0.22027990221977234],
			[0.02037292718887329, -0.015818417072296143, -0.2658953368663788, -0.19204095005989075, 0.2672657370567322, -0.44009703397750854, 0.3957366347312927, -0.36563172936439514, -0.2054283618927002, 0.3616389036178589, 0.536726713180542, 0.19906002283096313],
			[0.3195965886116028, 0.23862600326538086, -0.510985791683197, 0.2777906656265259, 0.4195082187652588, 0.43661409616470337, -0.09833258390426636, -0.3592470586299896, 0.2210012674331665, 0.46326518058776855, -0.2953517735004425, 0.31853413581848145]
		],
		"q_network/dense/bias:0": [0.0, 0.0, 0.0, 0.0, 0.0, 0.0, 0.0, 0.0, 0.0, 0.0, 0.0, 0.0],
		"q_network/dense_1/kernel:0": [
			[0.3413153886795044, 0.3886454105377197, -0.2340259552001953, 0.008053779602050781, 0.366939902305603, -0.20444905757904053, 0.38676416873931885, -0.12113583087921143, -0.4122828245162964, 0.35036730766296387, 0.23312604427337646, 0.20208048820495605],
			[-0.20289480686187744, -0.1349935531616211, 0.2856028079986572, -0.17503786087036133, -0.47378695011138916, -0.4017530679702759, 0.1731739044189453, 0.48189473152160645, 0.12027132511138916, 0.36478590965270996, 0.027251839637756348, 0.21949732303619385],
			[0.12712359428405762, 0.007942914962768555, 0.012755393981933594, 0.34446263313293457, -0.42456161975860596, 0.12475669384002686, -0.16994059085845947, -0.42816901206970215, 0.3910101652145386, 0.3899683952331543, -0.35622715950012207, 0.33487868309020996],
			[-0.015091657638549805, -0.35075104236602783, 0.005277752876281738, 0.07940781116485596, 0.4607856273651123, -0.27833783626556396, -0.014467954635620117, -0.15323102474212646, -0.36095941066741943, 0.09351623058319092, -0.4033687114715576, -0.3318519592285156],
			[-0.44918525218963623, 0.14771389961242676, -0.4990745782852173, 0.24957072734832764, 0.24582374095916748, -0.1428079605102539, -0.2568933963775635, -0.24196863174438477, -0.33091771602630615, 0.21233606338500977, 0.1631988286972046, -0.32383501529693604],
			[0.06799519062042236, -0.12281310558319092, 0.06136655807495117, 0.07168698310852051, -0.4060405492782593, 0.45357024669647217, 0.04518997669219971, 0.26389002799987793, 0.4870368242263794, -0.46188080310821533, 0.3360326290130615, -0.37585771083831787],
			[-0.34897661209106445, 0.4157758951187134, 0.3821697235107422, 0.01175379753112793, 0.17811477184295654, 0.4359930753707886, 0.015642762184143066, 0.005474090576171875, -0.1687558889389038, -0.15053832530975342, -0.045024871826171875, 0.1988675594329834],
			[-0.4719127416610718, 0.3600198030471802, 0.42441487312316895, 0.2518298625946045, 0.3178168535232544, 0.12603092193603516, -0.003140091896057129, -0.204179048538208, 0.23256158828735352, 0.20400965213775635, -0.3018379211425781, -0.09062695503234863],
			[-0.4230135679244995, -0.04166984558105469, -0.3925832509994507, -0.1715184450149536, 0.48608219623565674, -0.46559572219848633, 0.053064584732055664, -0.2180771827697754, -0.11490583419799805, 0.28601062297821045, 0.15568077564239502, -0.2656869888305664],
			[-0.385692834854126, 0.019398808479309082, 0.49535369873046875, 0.33033108711242676, 0.3993571996688843, 0.3902183771133423, 0.461398720741272, -0.013208389282226562, 0.14344704151153564, 0.19557344913482666, -0.4803816080093384, 0.34080398082733154],
			[-0.22980225086212158, 0.3505406379699707, 0.42150211334228516, 0.13057005405426025, -0.23714637756347656, -0.14661622047424316, -0.4622234106063843, 0.03580045700073242, -0.1916278600692749, 0.17839443683624268, 0.14084959030151367, 0.09577000141143799],
			[-0.39001762866973877, -0.27215147018432617, 0.43936586380004883, 0.08294534683227539, 0.3346647024154663, -0.39499402046203613, -0.2022188901901245, 0.20325446128845215, 0.02613043785095215, 0.1452873945236206, -0.36656856536865234, -0.2995809316635132]
		],
		"q_network/dense_1/bias:0": [0.0, 0.0, 0.0, 0.0, 0.0, 0.0, 0.0, 0.0, 0.0, 0.0, 0.0, 0.0],
		"q_network/dense_2/kernel:0": [
			[0.01979529857635498, 0.03108668327331543, 0.4977318048477173, -0.2404499053955078, 0.06536662578582764, -0.1561201810836792, 0.16606247425079346, -0.22535037994384766, 0.18592679500579834, 0.4202767610549927, 0.03215658664703369, 0.3989250659942627],
			[-0.4799576997756958, 0.40531134605407715, -0.06928157806396484, -0.21063387393951416, -0.2563314437866211, -0.38858020305633545, -0.15240716934204102, 0.2540353536605835, 0.010723114013671875, 0.12837648391723633, -0.056853532791137695, -0.1089320182800293],
			[-0.293872594833374, 0.04937291145324707, 0.3792459964752197, -0.210290789604187, 0.3770592212677002, 0.14138615131378174, 0.2207406759262085, 0.4966888427734375, -0.44873225688934326, 0.2998870611190796, -0.4931001663208008, 0.3157557249069214],
			[-0.01004648208618164, -0.033810973167419434, -0.42948484420776367, 0.13481318950653076, 0.10587894916534424, 0.12178313732147217, -0.4342077970504761, 0.42433738708496094, -0.45213770866394043, -0.1654345989227295, 0.009761452674865723, -0.16229724884033203],
			[-0.06320846080780029, 0.32096588611602783, -0.27698493003845215, -0.30743467807769775, -0.11423861980438232, 0.02682018280029297, -0.2966653108596802, -0.21386051177978516, -0.020296335220336914, 0.30234575271606445, 0.01918208599090576, 0.18435919284820557],
			[0.31511831283569336, 0.2812962532043457, -0.18920695781707764, 0.42071616649627686, 0.37049317359924316, 0.3840456008911133, -0.3736473321914673, 0.12135863304138184, 0.4288334846496582, 0.4451718330383301, -0.22000467777252197, 0.16366147994995117],
			[0.03247714042663574, -0.4732004404067993, -0.033873796463012695, 0.03831124305725098, -0.46647655963897705, -0.42895233631134033, 0.46502840518951416, 0.04119527339935303, -0.0055162906646728516, -0.24922657012939453, -0.237662672996521, -0.1762486696243286],
			[-0.14259982109069824, -0.2948603630065918, 0.05857646465301514, 0.21380746364593506, 0.13665449619293213, -0.4043388366699219, -0.24028754234313965, 0.20616579055786133, -0.2677267789840698, 0.04263186454772949, 0.2714632749557495, 0.46361541748046875],
			[0.4964907169342041, -0.14203262329101562, 0.4115869998931885, 0.011836886405944824, 0.036385416984558105, -0.04087340831756592, 0.34450244903564453, -0.40338873863220215, 0.35003960132598877, 0.12079477310180664, -0.26699793338775635, 0.18246960639953613],
			[-0.38611793518066406, -0.17139649391174316, -0.3195728063583374, 0.2827188968658447, 0.21545934677124023, -0.18806421756744385, -0.07210409641265869, 0.42102205753326416, 0.17891860008239746, -0.20631694793701172, 0.31654632091522217, -0.29211533069610596],
			[-0.11643636226654053, 0.45390117168426514, -0.12077760696411133, 0.29851436614990234, -0.49932634830474854, 0.34753966331481934, 0.19777095317840576, 0.029745101928710938, 0.2166452407836914, -0.1382453441619873, 0.3766288757324219, 0.2610360383987427],
			[-0.46873486042022705, -0.08866703510284424, -0.4946945905685425, 0.27511703968048096, 0.461651086807251, -0.016902804374694824, 0.49899590015411377, -0.3860896825790405, -0.1413559913635254, -0.4269806146621704, -0.2809107303619385, -0.4107398986816406]
		],
		"q_network/dense_2/bias:0": [0.0, 0.0, 0.0, 0.0, 0.0, 0.0, 0.0, 0.0, 0.0, 0.0, 0.0, 0.0],
		"q_network/dense_3/kernel:0": [
			[0.058580100536346436, -0.19278129935264587, 0.08437222242355347, -0.03291696310043335],
			[-0.5941113829612732, -0.43111035227775574, -0.3883419930934906, -0.216871440410614],
			[-0.04744464159011841, 0.5908191800117493, -0.5353303551673889, -0.17583218216896057],
			[-0.18893283605575562, 0.012880504131317139, -0.2871749997138977, 0.34824079275131226],
			[0.5791712403297424, -0.2772587537765503, 0.1690746545791626, 0.3553113341331482],
			[0.11353111267089844, 0.455882728099823, 0.1266748309135437, -0.032765984535217285],
			[0.22141236066818237, -0.36097660660743713, -0.5148444175720215, -0.2585677206516266],
			[0.6062312722206116, 0.14007490873336792, 0.020700037479400635, 0.4520631432533264],
			[0.6005974411964417, 0.5195391774177551, 0.3043830990791321, 0.19795191287994385],
			[0.09169501066207886, 0.0807347297668457, 0.2943670153617859, -0.20613235235214233],
			[-0.4226323664188385, -0.22444772720336914, 0.14628726243972778, -0.006599068641662598],
			[-0.48190540075302124, -0.40281376242637634, 0.08381664752960205, -0.08642512559890747]
		],
		"q_network/dense_3/bias:0": [0.0, 0.0, 0.0, 0.0]
	},
	"3": {
		"q_network/dense/kernel:0": [
			[0.030058443546295166, 0.462239146232605, -0.23869872093200684, 0.32330137491226196, 0.05567586421966553, 0.1925278902053833, -0.03515589237213135, 0.1464442014694214, 0.1880149245262146, 0.22052603960037231, -0.1673971712589264, -0.393826961517334],
			[0.04861032962799072, 0.37706923484802246, -0.5459186434745789, 0.20025867223739624, 0.327884316444397, 0.5071873664855957, -0.25147053599357605, -0.2940859794616699, 0.24269062280654907, -0.01776641607284546, 0.0989983081817627, -0.10395422577857971],
			[-0.4666787087917328, -0.4585655927658081, -0.3806400001049042, 0.15296638011932373, -0.12710487842559814, -0.3836078643798828, -0.25255662202835083, -0.43424108624458313, -0.11175617575645447, 0.27758991718292236, -0.052354246377944946, 0.5048007965087891],
			[0.04578191041946411, -0.19277536869049072, -0.03738582134246826, -0.0675453245639801, 0.03459036350250244, -0.1508987843990326, -0.2867250442504883, -0.20286545157432556, -0.36875540018081665, -0.45061033964157104, 0.11340481042861938, -0.23335927724838257],
			[0.20956206321716309, -0.26220521330833435, -0.031967222690582275, 0.23864102363586426, -0.08019101619720459, 0.2664172649383545, -0.19051948189735413, -0.27434849739074707, -0.08032798767089844, -0.33402568101882935, 0.055649757385253906, 0.5266577005386353],
			[0.28039872646331787, -0.5043289661407471, 0.39943361282348633, -0.4970557689666748, -0.49251577258110046, 0.4830472469329834, -0.22192099690437317, -0.17660096287727356, -0.13695859909057617, -0.01199483871459961, -0.3181658983230591, -0.22027990221977234],
			[0.02037292718887329, -0.015818417072296143, -0.2658953368663788, -0.19204095005989075, 0.2672657370567322, -0.44009703397750854, 0.3957366347312927, -0.36563172936439514, -0.2054283618927002, 0.3616389036178589, 0.536726713180542, 0.19906002283096313],
			[0.3195965886116028, 0.23862600326538086, -0.510985791683197, 0.2777906656265259, 0.4195082187652588, 0.43661409616470337, -0.09833258390426636, -0.3592470586299896, 0.2210012674331665, 0.46326518058776855, -0.2953517735004425, 0.31853413581848145]
		],
		"q_network/dense/bias:0": [0.0, 0.0, 0.0, 0.0, 0.0, 0.0, 0.0, 0.0, 0.0, 0.0, 0.0, 0.0],
		"q_network/dense_1/kernel:0": [
			[0.3413153886795044, 0.3886454105377197, -0.2340259552001953, 0.008053779602050781, 0.366939902305603, -0.20444905757904053, 0.38676416873931885, -0.12113583087921143, -0.4122828245162964, 0.35036730766296387, 0.23312604427337646, 0.20208048820495605],
			[-0.20289480686187744, -0.1349935531616211, 0.2856028079986572, -0.17503786087036133, -0.47378695011138916, -0.4017530679702759, 0.1731739044189453, 0.48189473152160645, 0.12027132511138916, 0.36478590965270996, 0.027251839637756348, 0.21949732303619385],
			[0.12712359428405762, 0.007942914962768555, 0.012755393981933594, 0.34446263313293457, -0.42456161975860596, 0.12475669384002686, -0.16994059085845947, -0.42816901206970215, 0.3910101652145386, 0.3899683952331543, -0.35622715950012207, 0.33487868309020996],
			[-0.015091657638549805, -0.35075104236602783, 0.005277752876281738, 0.07940781116485596, 0.4607856273651123, -0.27833783626556396, -0.014467954635620117, -0.15323102474212646, -0.36095941066741943, 0.09351623058319092, -0.4033687114715576, -0.3318519592285156],
			[-0.44918525218963623, 0.14771389961242676, -0.4990745782852173, 0.24957072734832764, 0.24582374095916748, -0.1428079605102539, -0.2568933963775635, -0.24196863174438477, -0.33091771602630615, 0.21233606338500977, 0.1631988286972046, -0.32383501529693604],
			[0.06799519062042236, -0.12281310558319092, 0.06136655807495117, 0.07168698310852051, -0.4060405492782593, 0.45357024669647217, 0.04518997669219971, 0.26389002799987793, 0.4870368242263794, -0.46188080310821533, 0.3360326290130615, -0.37585771083831787],
			[-0.34897661209106445, 0.4157758951187134, 0.3821697235107422, 0.01175379753112793, 0.17811477184295654, 0.4359930753707886, 0.015642762184143066, 0.005474090576171875, -0.1687558889389038, -0.15053832530975342, -0.045024871826171875, 0.1988675594329834],
			[-0.4719127416610718, 0.3600198030471802, 0.42441487312316895, 0.2518298625946045, 0.3178168535232544, 0.12603092193603516, -0.003140091896057129, -0.204179048538208, 0.23256158828735352, 0.20400965213775635, -0.3018379211425781, -0.09062695503234863],
			[-0.4230135679244995, -0.04166984558105469, -0.3925832509994507, -0.1715184450149536, 0.48608219623565674, -0.46559572219848633, 0.053064584732055664, -0.2180771827697754, -0.11490583419799805, 0.28601062297821045, 0.15568077564239502, -0.2656869888305664],
			[-0.385692834854126, 0.019398808479309082, 0.49535369873046875, 0.33033108711242676, 0.3993571996688843, 0.3902183771133423, 0.461398720741272, -0.013208389282226562, 0.14344704151153564, 0.19557344913482666, -0.4803816080093384, 0.34080398082733154],
			[-0.22980225086212158, 0.3505406379699707, 0.42150211334228516, 0.13057005405426025, -0.23714637756347656, -0.14661622047424316, -0.4622234106063843, 0.03580045700073242, -0.1916278600692749, 0.17839443683624268, 0.14084959030151367, 0.09577000141143799],
			[-0.39001762866973877, -0.27215147018432617, 0.43936586380004883, 0.08294534683227539, 0.3346647024154663, -0.39499402046203613, -0.2022188901901245, 0.20325446128845215, 0.02613043785095215, 0.1452873945236206, -0.36656856536865234, -0.2995809316635132]
		],
		"q_network/dense_1/bias:0": [0.0, 0.0, 0.0, 0.0, 0.0, 0.0, 0.0, 0.0, 0.0, 0.0, 0.0, 0.0],
		"q_network/dense_2/kernel:0": [
			[0.01979529857635498, 0.03108668327331543, 0.4977318048477173, -0.2404499053955078, 0.06536662578582764, -0.1561201810836792, 0.16606247425079346, -0.22535037994384766, 0.18592679500579834, 0.4202767610549927, 0.03215658664703369, 0.3989250659942627],
			[-0.4799576997756958, 0.40531134605407715, -0.06928157806396484, -0.21063387393951416, -0.2563314437866211, -0.38858020305633545, -0.15240716934204102, 0.2540353536605835, 0.010723114013671875, 0.12837648391723633, -0.056853532791137695, -0.1089320182800293],
			[-0.293872594833374, 0.04937291145324707, 0.3792459964752197, -0.210290789604187, 0.3770592212677002, 0.14138615131378174, 0.2207406759262085, 0.4966888427734375, -0.44873225688934326, 0.2998870611190796, -0.4931001663208008, 0.3157557249069214],
			[-0.01004648208618164, -0.033810973167419434, -0.42948484420776367, 0.13481318950653076, 0.10587894916534424, 0.12178313732147217, -0.4342077970504761, 0.42433738708496094, -0.45213770866394043, -0.1654345989227295, 0.009761452674865723, -0.16229724884033203],
			[-0.06320846080780029, 0.32096588611602783, -0.27698493003845215, -0.30743467807769775, -0.11423861980438232, 0.02682018280029297, -0.2966653108596802, -0.21386051177978516, -0.020296335220336914, 0.30234575271606445, 0.01918208599090576, 0.18435919284820557],
			[0.31511831283569336, 0.2812962532043457, -0.18920695781707764, 0.42071616649627686, 0.37049317359924316, 0.3840456008911133, -0.3736473321914673, 0.12135863304138184, 0.4288334846496582, 0.4451718330383301, -0.22000467777252197, 0.16366147994995117],
			[0.03247714042663574, -0.4732004404067993, -0.033873796463012695, 0.03831124305725098, -0.46647655963897705, -0.42895233631134033, 0.46502840518951416, 0.04119527339935303, -0.0055162906646728516, -0.24922657012939453, -0.237662672996521, -0.1762486696243286],
			[-0.14259982109069824, -0.2948603630065918, 0.05857646465301514, 0.21380746364593506, 0.13665449619293213, -0.4043388366699219, -0.24028754234313965, 0.20616579055786133, -0.2677267789840698, 0.04263186454772949, 0.2714632749557495, 0.46361541748046875],
			[0.4964907169342041, -0.14203262329101562, 0.4115869998931885, 0.011836886405944824, 0.036385416984558105, -0.04087340831756592, 0.34450244903564453, -0.40338873863220215, 0.35003960132598877, 0.12079477310180664, -0.26699793338775635, 0.18246960639953613],
			[-0.38611793518066406, -0.17139649391174316, -0.3195728063583374, 0.2827188968658447, 0.21545934677124023, -0.18806421756744385, -0.07210409641265869, 0.42102205753326416, 0.17891860008239746, -0.20631694793701172, 0.31654632091522217, -0.29211533069610596],
			[-0.11643636226654053, 0.45390117168426514, -0.12077760696411133, 0.29851436614990234, -0.49932634830474854, 0.34753966331481934, 0.19777095317840576, 0.029745101928710938, 0.2166452407836914, -0.1382453441619873, 0.3766288757324219, 0.2610360383987427],
			[-0.46873486042022705, -0.08866703510284424, -0.4946945905685425, 0.27511703968048096, 0.461651086807251, -0.016902804374694824, 0.49899590015411377, -0.3860896825790405, -0.1413559913635254, -0.4269806146621704, -0.2809107303619385, -0.4107398986816406]
		],
		"q_network/dense_2/bias:0": [0.0, 0.0, 0.0, 0.0, 0.0, 0.0, 0.0, 0.0, 0.0, 0.0, 0.0, 0.0],
		"q_network/dense_3/kernel:0": [
			[0.058580100536346436, -0.19278129935264587, 0.08437222242355347, -0.03291696310043335],
			[-0.5941113829612732, -0.43111035227775574, -0.3883419930934906, -0.216871440410614],
			[-0.04744464159011841, 0.5908191800117493, -0.5353303551673889, -0.17583218216896057],
			[-0.18893283605575562, 0.012880504131317139, -0.2871749997138977, 0.34824079275131226],
			[0.5791712403297424, -0.2772587537765503, 0.1690746545791626, 0.3553113341331482],
			[0.11353111267089844, 0.455882728099823, 0.1266748309135437, -0.032765984535217285],
			[0.22141236066818237, -0.36097660660743713, -0.5148444175720215, -0.2585677206516266],
			[0.6062312722206116, 0.14007490873336792, 0.020700037479400635, 0.4520631432533264],
			[0.6005974411964417, 0.5195391774177551, 0.3043830990791321, 0.19795191287994385],
			[0.09169501066207886, 0.0807347297668457, 0.2943670153617859, -0.20613235235214233],
			[-0.4226323664188385, -0.22444772720336914, 0.14628726243972778, -0.006599068641662598],
			[-0.48190540075302124, -0.40281376242637634, 0.08381664752960205, -0.08642512559890747]
		],
		"q_network/dense_3/bias:0": [0.0, 0.0, 0.0, 0.0]
	},
	"4": {
		"q_network/dense/kernel:0": [
			[0.030058443546295166, 0.462239146232605, -0.23869872093200684, 0.32330137491226196, 0.05567586421966553, 0.1925278902053833, -0.03515589237213135, 0.1464442014694214, 0.1880149245262146, 0.22052603960037231, -0.1673971712589264, -0.393826961517334],
			[0.04861032962799072, 0.37706923484802246, -0.5459186434745789, 0.20025867223739624, 0.327884316444397, 0.5071873664855957, -0.25147053599357605, -0.2940859794616699, 0.24269062280654907, -0.01776641607284546, 0.0989983081817627, -0.10395422577857971],
			[-0.4666787087917328, -0.4585655927658081, -0.3806400001049042, 0.15296638011932373, -0.12710487842559814, -0.3836078643798828, -0.25255662202835083, -0.43424108624458313, -0.11175617575645447, 0.27758991718292236, -0.052354246377944946, 0.5048007965087891],
			[0.04578191041946411, -0.19277536869049072, -0.03738582134246826, -0.0675453245639801, 0.03459036350250244, -0.1508987843990326, -0.2867250442504883, -0.20286545157432556, -0.36875540018081665, -0.45061033964157104, 0.11340481042861938, -0.23335927724838257],
			[0.20956206321716309, -0.26220521330833435, -0.031967222690582275, 0.23864102363586426, -0.08019101619720459, 0.2664172649383545, -0.19051948189735413, -0.27434849739074707, -0.08032798767089844, -0.33402568101882935, 0.055649757385253906, 0.5266577005386353],
			[0.28039872646331787, -0.5043289661407471, 0.39943361282348633, -0.4970557689666748, -0.49251577258110046, 0.4830472469329834, -0.22192099690437317, -0.17660096287727356, -0.13695859909057617, -0.01199483871459961, -0.3181658983230591, -0.22027990221977234],
			[0.02037292718887329, -0.015818417072296143, -0.2658953368663788, -0.19204095005989075, 0.2672657370567322, -0.44009703397750854, 0.3957366347312927, -0.36563172936439514, -0.2054283618927002, 0.3616389036178589, 0.536726713180542, 0.19906002283096313],
			[0.3195965886116028, 0.23862600326538086, -0.510985791683197, 0.2777906656265259, 0.4195082187652588, 0.43661409616470337, -0.09833258390426636, -0.3592470586299896, 0.2210012674331665, 0.46326518058776855, -0.2953517735004425, 0.31853413581848145]
		],
		"q_network/dense/bias:0": [0.0, 0.0, 0.0, 0.0, 0.0, 0.0, 0.0, 0.0, 0.0, 0.0, 0.0, 0.0],
		"q_network/dense_1/kernel:0": [
			[0.3413153886795044, 0.3886454105377197, -0.2340259552001953, 0.008053779602050781, 0.366939902305603, -0.20444905757904053, 0.38676416873931885, -0.12113583087921143, -0.4122828245162964, 0.35036730766296387, 0.23312604427337646, 0.20208048820495605],
			[-0.20289480686187744, -0.1349935531616211, 0.2856028079986572, -0.17503786087036133, -0.47378695011138916, -0.4017530679702759, 0.1731739044189453, 0.48189473152160645, 0.12027132511138916, 0.36478590965270996, 0.027251839637756348, 0.21949732303619385],
			[0.12712359428405762, 0.007942914962768555, 0.012755393981933594, 0.34446263313293457, -0.42456161975860596, 0.12475669384002686, -0.16994059085845947, -0.42816901206970215, 0.3910101652145386, 0.3899683952331543, -0.35622715950012207, 0.33487868309020996],
			[-0.015091657638549805, -0.35075104236602783, 0.005277752876281738, 0.07940781116485596, 0.4607856273651123, -0.27833783626556396, -0.014467954635620117, -0.15323102474212646, -0.36095941066741943, 0.09351623058319092, -0.4033687114715576, -0.3318519592285156],
			[-0.44918525218963623, 0.14771389961242676, -0.4990745782852173, 0.24957072734832764, 0.24582374095916748, -0.1428079605102539, -0.2568933963775635, -0.24196863174438477, -0.33091771602630615, 0.21233606338500977, 0.1631988286972046, -0.32383501529693604],
			[0.06799519062042236, -0.12281310558319092, 0.06136655807495117, 0.07168698310852051, -0.4060405492782593, 0.45357024669647217, 0.04518997669219971, 0.26389002799987793, 0.4870368242263794, -0.46188080310821533, 0.3360326290130615, -0.37585771083831787],
			[-0.34897661209106445, 0.4157758951187134, 0.3821697235107422, 0.01175379753112793, 0.17811477184295654, 0.4359930753707886, 0.015642762184143066, 0.005474090576171875, -0.1687558889389038, -0.15053832530975342, -0.045024871826171875, 0.1988675594329834],
			[-0.4719127416610718, 0.3600198030471802, 0.42441487312316895, 0.2518298625946045, 0.3178168535232544, 0.12603092193603516, -0.003140091896057129, -0.204179048538208, 0.23256158828735352, 0.20400965213775635, -0.3018379211425781, -0.09062695503234863],
			[-0.4230135679244995, -0.04166984558105469, -0.3925832509994507, -0.1715184450149536, 0.48608219623565674, -0.46559572219848633, 0.053064584732055664, -0.2180771827697754, -0.11490583419799805, 0.28601062297821045, 0.15568077564239502, -0.2656869888305664],
			[-0.385692834854126, 0.019398808479309082, 0.49535369873046875, 0.33033108711242676, 0.3993571996688843, 0.3902183771133423, 0.461398720741272, -0.013208389282226562, 0.14344704151153564, 0.19557344913482666, -0.4803816080093384, 0.34080398082733154],
			[-0.22980225086212158, 0.3505406379699707, 0.42150211334228516, 0.13057005405426025, -0.23714637756347656, -0.14661622047424316, -0.4622234106063843, 0.03580045700073242, -0.1916278600692749, 0.17839443683624268, 0.14084959030151367, 0.09577000141143799],
			[-0.39001762866973877, -0.27215147018432617, 0.43936586380004883, 0.08294534683227539, 0.3346647024154663, -0.39499402046203613, -0.2022188901901245, 0.20325446128845215, 0.02613043785095215, 0.1452873945236206, -0.36656856536865234, -0.2995809316635132]
		],
		"q_network/dense_1/bias:0": [0.0, 0.0, 0.0, 0.0, 0.0, 0.0, 0.0, 0.0, 0.0, 0.0, 0.0, 0.0],
		"q_network/dense_2/kernel:0": [
			[0.01979529857635498, 0.03108668327331543, 0.4977318048477173, -0.2404499053955078, 0.06536662578582764, -0.1561201810836792, 0.16606247425079346, -0.22535037994384766, 0.18592679500579834, 0.4202767610549927, 0.03215658664703369, 0.3989250659942627],
			[-0.4799576997756958, 0.40531134605407715, -0.06928157806396484, -0.21063387393951416, -0.2563314437866211, -0.38858020305633545, -0.15240716934204102, 0.2540353536605835, 0.010723114013671875, 0.12837648391723633, -0.056853532791137695, -0.1089320182800293],
			[-0.293872594833374, 0.04937291145324707, 0.3792459964752197, -0.210290789604187, 0.3770592212677002, 0.14138615131378174, 0.2207406759262085, 0.4966888427734375, -0.44873225688934326, 0.2998870611190796, -0.4931001663208008, 0.3157557249069214],
			[-0.01004648208618164, -0.033810973167419434, -0.42948484420776367, 0.13481318950653076, 0.10587894916534424, 0.12178313732147217, -0.4342077970504761, 0.42433738708496094, -0.45213770866394043, -0.1654345989227295, 0.009761452674865723, -0.16229724884033203],
			[-0.06320846080780029, 0.32096588611602783, -0.27698493003845215, -0.30743467807769775, -0.11423861980438232, 0.02682018280029297, -0.2966653108596802, -0.21386051177978516, -0.020296335220336914, 0.30234575271606445, 0.01918208599090576, 0.18435919284820557],
			[0.31511831283569336, 0.2812962532043457, -0.18920695781707764, 0.42071616649627686, 0.37049317359924316, 0.3840456008911133, -0.3736473321914673, 0.12135863304138184, 0.4288334846496582, 0.4451718330383301, -0.22000467777252197, 0.16366147994995117],
			[0.03247714042663574, -0.4732004404067993, -0.033873796463012695, 0.03831124305725098, -0.46647655963897705, -0.42895233631134033, 0.46502840518951416, 0.04119527339935303, -0.0055162906646728516, -0.24922657012939453, -0.237662672996521, -0.1762486696243286],
			[-0.14259982109069824, -0.2948603630065918, 0.05857646465301514, 0.21380746364593506, 0.13665449619293213, -0.4043388366699219, -0.24028754234313965, 0.20616579055786133, -0.2677267789840698, 0.04263186454772949, 0.2714632749557495, 0.46361541748046875],
			[0.4964907169342041, -0.14203262329101562, 0.4115869998931885, 0.011836886405944824, 0.036385416984558105, -0.04087340831756592, 0.34450244903564453, -0.40338873863220215, 0.35003960132598877, 0.12079477310180664, -0.26699793338775635, 0.18246960639953613],
			[-0.38611793518066406, -0.17139649391174316, -0.3195728063583374, 0.2827188968658447, 0.21545934677124023, -0.18806421756744385, -0.07210409641265869, 0.42102205753326416, 0.17891860008239746, -0.20631694793701172, 0.31654632091522217, -0.29211533069610596],
			[-0.11643636226654053, 0.45390117168426514, -0.12077760696411133, 0.29851436614990234, -0.49932634830474854, 0.34753966331481934, 0.19777095317840576, 0.029745101928710938, 0.2166452407836914, -0.1382453441619873, 0.3766288757324219, 0.2610360383987427],
			[-0.46873486042022705, -0.08866703510284424, -0.4946945905685425, 0.27511703968048096, 0.461651086807251, -0.016902804374694824, 0.49899590015411377, -0.3860896825790405, -0.1413559913635254, -0.4269806146621704, -0.2809107303619385, -0.4107398986816406]
		],
		"q_network/dense_2/bias:0": [0.0, 0.0, 0.0, 0.0, 0.0, 0.0, 0.0, 0.0, 0.0, 0.0, 0.0, 0.0],
		"q_network/dense_3/kernel:0": [
			[0.058580100536346436, -0.19278129935264587, 0.08437222242355347, -0.03291696310043335],
			[-0.5941113829612732, -0.43111035227775574, -0.3883419930934906, -0.216871440410614],
			[-0.04744464159011841, 0.5908191800117493, -0.5353303551673889, -0.17583218216896057],
			[-0.18893283605575562, 0.012880504131317139, -0.2871749997138977, 0.34824079275131226],
			[0.5791712403297424, -0.2772587537765503, 0.1690746545791626, 0.3553113341331482],
			[0.11353111267089844, 0.455882728099823, 0.1266748309135437, -0.032765984535217285],
			[0.22141236066818237, -0.36097660660743713, -0.5148444175720215, -0.2585677206516266],
			[0.6062312722206116, 0.14007490873336792, 0.020700037479400635, 0.4520631432533264],
			[0.6005974411964417, 0.5195391774177551, 0.3043830990791321, 0.19795191287994385],
			[0.09169501066207886, 0.0807347297668457, 0.2943670153617859, -0.20613235235214233],
			[-0.4226323664188385, -0.22444772720336914, 0.14628726243972778, -0.006599068641662598],
			[-0.48190540075302124, -0.40281376242637634, 0.08381664752960205, -0.08642512559890747]
		],
		"q_network/dense_3/bias:0": [0.0, 0.0, 0.0, 0.0]
	},
	"5": {
		"q_network/dense/kernel:0": [
			[0.030058443546295166, 0.462239146232605, -0.23869872093200684, 0.32330137491226196, 0.05567586421966553, 0.1925278902053833, -0.03515589237213135, 0.1464442014694214, 0.1880149245262146, 0.22052603960037231, -0.1673971712589264, -0.393826961517334],
			[0.04861032962799072, 0.37706923484802246, -0.5459186434745789, 0.20025867223739624, 0.327884316444397, 0.5071873664855957, -0.25147053599357605, -0.2940859794616699, 0.24269062280654907, -0.01776641607284546, 0.0989983081817627, -0.10395422577857971],
			[-0.4666787087917328, -0.4585655927658081, -0.3806400001049042, 0.15296638011932373, -0.12710487842559814, -0.3836078643798828, -0.25255662202835083, -0.43424108624458313, -0.11175617575645447, 0.27758991718292236, -0.052354246377944946, 0.5048007965087891],
			[0.04578191041946411, -0.19277536869049072, -0.03738582134246826, -0.0675453245639801, 0.03459036350250244, -0.1508987843990326, -0.2867250442504883, -0.20286545157432556, -0.36875540018081665, -0.45061033964157104, 0.11340481042861938, -0.23335927724838257],
			[0.20956206321716309, -0.26220521330833435, -0.031967222690582275, 0.23864102363586426, -0.08019101619720459, 0.2664172649383545, -0.19051948189735413, -0.27434849739074707, -0.08032798767089844, -0.33402568101882935, 0.055649757385253906, 0.5266577005386353],
			[0.28039872646331787, -0.5043289661407471, 0.39943361282348633, -0.4970557689666748, -0.49251577258110046, 0.4830472469329834, -0.22192099690437317, -0.17660096287727356, -0.13695859909057617, -0.01199483871459961, -0.3181658983230591, -0.22027990221977234],
			[0.02037292718887329, -0.015818417072296143, -0.2658953368663788, -0.19204095005989075, 0.2672657370567322, -0.44009703397750854, 0.3957366347312927, -0.36563172936439514, -0.2054283618927002, 0.3616389036178589, 0.536726713180542, 0.19906002283096313],
			[0.3195965886116028, 0.23862600326538086, -0.510985791683197, 0.2777906656265259, 0.4195082187652588, 0.43661409616470337, -0.09833258390426636, -0.3592470586299896, 0.2210012674331665, 0.46326518058776855, -0.2953517735004425, 0.31853413581848145]
		],
		"q_network/dense/bias:0": [0.0, 0.0, 0.0, 0.0, 0.0, 0.0, 0.0, 0.0, 0.0, 0.0, 0.0, 0.0],
		"q_network/dense_1/kernel:0": [
			[0.3413153886795044, 0.3886454105377197, -0.2340259552001953, 0.008053779602050781, 0.366939902305603, -0.20444905757904053, 0.38676416873931885, -0.12113583087921143, -0.4122828245162964, 0.35036730766296387, 0.23312604427337646, 0.20208048820495605],
			[-0.20289480686187744, -0.1349935531616211, 0.2856028079986572, -0.17503786087036133, -0.47378695011138916, -0.4017530679702759, 0.1731739044189453, 0.48189473152160645, 0.12027132511138916, 0.36478590965270996, 0.027251839637756348, 0.21949732303619385],
			[0.12712359428405762, 0.007942914962768555, 0.012755393981933594, 0.34446263313293457, -0.42456161975860596, 0.12475669384002686, -0.16994059085845947, -0.42816901206970215, 0.3910101652145386, 0.3899683952331543, -0.35622715950012207, 0.33487868309020996],
			[-0.015091657638549805, -0.35075104236602783, 0.005277752876281738, 0.07940781116485596, 0.4607856273651123, -0.27833783626556396, -0.014467954635620117, -0.15323102474212646, -0.36095941066741943, 0.09351623058319092, -0.4033687114715576, -0.3318519592285156],
			[-0.44918525218963623, 0.14771389961242676, -0.4990745782852173, 0.24957072734832764, 0.24582374095916748, -0.1428079605102539, -0.2568933963775635, -0.24196863174438477, -0.33091771602630615, 0.21233606338500977, 0.1631988286972046, -0.32383501529693604],
			[0.06799519062042236, -0.12281310558319092, 0.06136655807495117, 0.07168698310852051, -0.4060405492782593, 0.45357024669647217, 0.04518997669219971, 0.26389002799987793, 0.4870368242263794, -0.46188080310821533, 0.3360326290130615, -0.37585771083831787],
			[-0.34897661209106445, 0.4157758951187134, 0.3821697235107422, 0.01175379753112793, 0.17811477184295654, 0.4359930753707886, 0.015642762184143066, 0.005474090576171875, -0.1687558889389038, -0.15053832530975342, -0.045024871826171875, 0.1988675594329834],
			[-0.4719127416610718, 0.3600198030471802, 0.42441487312316895, 0.2518298625946045, 0.3178168535232544, 0.12603092193603516, -0.003140091896057129, -0.204179048538208, 0.23256158828735352, 0.20400965213775635, -0.3018379211425781, -0.09062695503234863],
			[-0.4230135679244995, -0.04166984558105469, -0.3925832509994507, -0.1715184450149536, 0.48608219623565674, -0.46559572219848633, 0.053064584732055664, -0.2180771827697754, -0.11490583419799805, 0.28601062297821045, 0.15568077564239502, -0.2656869888305664],
			[-0.385692834854126, 0.019398808479309082, 0.49535369873046875, 0.33033108711242676, 0.3993571996688843, 0.3902183771133423, 0.461398720741272, -0.013208389282226562, 0.14344704151153564, 0.19557344913482666, -0.4803816080093384, 0.34080398082733154],
			[-0.22980225086212158, 0.3505406379699707, 0.42150211334228516, 0.13057005405426025, -0.23714637756347656, -0.14661622047424316, -0.4622234106063843, 0.03580045700073242, -0.1916278600692749, 0.17839443683624268, 0.14084959030151367, 0.09577000141143799],
			[-0.39001762866973877, -0.27215147018432617, 0.43936586380004883, 0.08294534683227539, 0.3346647024154663, -0.39499402046203613, -0.2022188901901245, 0.20325446128845215, 0.02613043785095215, 0.1452873945236206, -0.36656856536865234, -0.2995809316635132]
		],
		"q_network/dense_1/bias:0": [0.0, 0.0, 0.0, 0.0, 0.0, 0.0, 0.0, 0.0, 0.0, 0.0, 0.0, 0.0],
		"q_network/dense_2/kernel:0": [
			[0.01979529857635498, 0.03108668327331543, 0.4977318048477173, -0.2404499053955078, 0.06536662578582764, -0.1561201810836792, 0.16606247425079346, -0.22535037994384766, 0.18592679500579834, 0.4202767610549927, 0.03215658664703369, 0.3989250659942627],
			[-0.4799576997756958, 0.40531134605407715, -0.06928157806396484, -0.21063387393951416, -0.2563314437866211, -0.38858020305633545, -0.15240716934204102, 0.2540353536605835, 0.010723114013671875, 0.12837648391723633, -0.056853532791137695, -0.1089320182800293],
			[-0.293872594833374, 0.04937291145324707, 0.3792459964752197, -0.210290789604187, 0.3770592212677002, 0.14138615131378174, 0.2207406759262085, 0.4966888427734375, -0.44873225688934326, 0.2998870611190796, -0.4931001663208008, 0.3157557249069214],
			[-0.01004648208618164, -0.033810973167419434, -0.42948484420776367, 0.13481318950653076, 0.10587894916534424, 0.12178313732147217, -0.4342077970504761, 0.42433738708496094, -0.45213770866394043, -0.1654345989227295, 0.009761452674865723, -0.16229724884033203],
			[-0.06320846080780029, 0.32096588611602783, -0.27698493003845215, -0.30743467807769775, -0.11423861980438232, 0.02682018280029297, -0.2966653108596802, -0.21386051177978516, -0.020296335220336914, 0.30234575271606445, 0.01918208599090576, 0.18435919284820557],
			[0.31511831283569336, 0.2812962532043457, -0.18920695781707764, 0.42071616649627686, 0.37049317359924316, 0.3840456008911133, -0.3736473321914673, 0.12135863304138184, 0.4288334846496582, 0.4451718330383301, -0.22000467777252197, 0.16366147994995117],
			[0.03247714042663574, -0.4732004404067993, -0.033873796463012695, 0.03831124305725098, -0.46647655963897705, -0.42895233631134033, 0.46502840518951416, 0.04119527339935303, -0.0055162906646728516, -0.24922657012939453, -0.237662672996521, -0.1762486696243286],
			[-0.14259982109069824, -0.2948603630065918, 0.05857646465301514, 0.21380746364593506, 0.13665449619293213, -0.4043388366699219, -0.24028754234313965, 0.20616579055786133, -0.2677267789840698, 0.04263186454772949, 0.2714632749557495, 0.46361541748046875],
			[0.4964907169342041, -0.14203262329101562, 0.4115869998931885, 0.011836886405944824, 0.036385416984558105, -0.04087340831756592, 0.34450244903564453, -0.40338873863220215, 0.35003960132598877, 0.12079477310180664, -0.26699793338775635, 0.18246960639953613],
			[-0.38611793518066406, -0.17139649391174316, -0.3195728063583374, 0.2827188968658447, 0.21545934677124023, -0.18806421756744385, -0.07210409641265869, 0.42102205753326416, 0.17891860008239746, -0.20631694793701172, 0.31654632091522217, -0.29211533069610596],
			[-0.11643636226654053, 0.45390117168426514, -0.12077760696411133, 0.29851436614990234, -0.49932634830474854, 0.34753966331481934, 0.19777095317840576, 0.029745101928710938, 0.2166452407836914, -0.1382453441619873, 0.3766288757324219, 0.2610360383987427],
			[-0.46873486042022705, -0.08866703510284424, -0.4946945905685425, 0.27511703968048096, 0.461651086807251, -0.016902804374694824, 0.49899590015411377, -0.3860896825790405, -0.1413559913635254, -0.4269806146621704, -0.2809107303619385, -0.4107398986816406]
		],
		"q_network/dense_2/bias:0": [0.0, 0.0, 0.0, 0.0, 0.0, 0.0, 0.0, 0.0, 0.0, 0.0, 0.0, 0.0],
		"q_network/dense_3/kernel:0": [
			[0.058580100536346436, -0.19278129935264587, 0.08437222242355347, -0.03291696310043335],
			[-0.5941113829612732, -0.43111035227775574, -0.3883419930934906, -0.216871440410614],
			[-0.04744464159011841, 0.5908191800117493, -0.5353303551673889, -0.17583218216896057],
			[-0.18893283605575562, 0.012880504131317139, -0.2871749997138977, 0.34824079275131226],
			[0.5791712403297424, -0.2772587537765503, 0.1690746545791626, 0.3553113341331482],
			[0.11353111267089844, 0.455882728099823, 0.1266748309135437, -0.032765984535217285],
			[0.22141236066818237, -0.36097660660743713, -0.5148444175720215, -0.2585677206516266],
			[0.6062312722206116, 0.14007490873336792, 0.020700037479400635, 0.4520631432533264],
			[0.6005974411964417, 0.5195391774177551, 0.3043830990791321, 0.19795191287994385],
			[0.09169501066207886, 0.0807347297668457, 0.2943670153617859, -0.20613235235214233],
			[-0.4226323664188385, -0.22444772720336914, 0.14628726243972778, -0.006599068641662598],
			[-0.48190540075302124, -0.40281376242637634, 0.08381664752960205, -0.08642512559890747]
		],
		"q_network/dense_3/bias:0": [0.0, 0.0, 0.0, 0.0]
	}
}